digraph Tree {
node [shape=box, style="filled, rounded", color="black", fontname=helvetica] ;
edge [fontname=helvetica] ;
0 [label="sqft_lot <= 0.5\ngini = 0.266\nsamples = 320\nvalue = [23, 272, 25]\nclass = media", fillcolor="#59e996"] ;
1 [label="floors <= 0.5\ngini = 0.121\nsamples = 142\nvalue = [3, 133, 6]\nclass = media", fillcolor="#46e789"] ;
0 -> 1 [labeldistance=2.5, labelangle=45, headlabel="True"] ;
2 [label="sqft_basement <= 0.5\ngini = 0.231\nsamples = 70\nvalue = [3, 61, 6]\nclass = media", fillcolor="#55e993"] ;
1 -> 2 ;
3 [label="sqft_living <= 0.5\ngini = 0.316\nsamples = 37\nvalue = [1, 30, 6]\nclass = media", fillcolor="#66eb9d"] ;
2 -> 3 ;
4 [label="view <= 0.5\ngini = 0.284\nsamples = 35\nvalue = [0, 29, 6]\nclass = media", fillcolor="#62ea9b"] ;
3 -> 4 ;
5 [label="sqft_above <= 0.5\ngini = 0.238\nsamples = 29\nvalue = [0, 25, 4]\nclass = media", fillcolor="#59e995"] ;
4 -> 5 ;
6 [label="grade <= 0.5\ngini = 0.269\nsamples = 25\nvalue = [0, 21, 4]\nclass = media", fillcolor="#5fea99"] ;
5 -> 6 ;
7 [label="condition <= 0.5\ngini = 0.287\nsamples = 23\nvalue = [0, 19, 4]\nclass = media", fillcolor="#63ea9c"] ;
6 -> 7 ;
8 [label="gini = 0.245\nsamples = 14\nvalue = [0, 12, 2]\nclass = media", fillcolor="#5ae996"] ;
7 -> 8 ;
9 [label="gini = 0.346\nsamples = 9\nvalue = [0, 7, 2]\nclass = media", fillcolor="#72eca5"] ;
7 -> 9 ;
10 [label="gini = 0.0\nsamples = 2\nvalue = [0, 2, 0]\nclass = media", fillcolor="#39e581"] ;
6 -> 10 ;
11 [label="gini = 0.0\nsamples = 4\nvalue = [0, 4, 0]\nclass = media", fillcolor="#39e581"] ;
5 -> 11 ;
12 [label="sqft_above <= 0.5\ngini = 0.444\nsamples = 6\nvalue = [0, 4, 2]\nclass = media", fillcolor="#9cf2c0"] ;
4 -> 12 ;
13 [label="condition <= 0.5\ngini = 0.48\nsamples = 5\nvalue = [0, 3, 2]\nclass = media", fillcolor="#bdf6d5"] ;
12 -> 13 ;
14 [label="gini = 0.375\nsamples = 4\nvalue = [0, 3, 1]\nclass = media", fillcolor="#7beeab"] ;
13 -> 14 ;
15 [label="gini = 0.0\nsamples = 1\nvalue = [0, 0, 1]\nclass = caro", fillcolor="#8139e5"] ;
13 -> 15 ;
16 [label="gini = 0.0\nsamples = 1\nvalue = [0, 1, 0]\nclass = media", fillcolor="#39e581"] ;
12 -> 16 ;
17 [label="condition <= 0.5\ngini = 0.5\nsamples = 2\nvalue = [1, 1, 0]\nclass = barato", fillcolor="#ffffff"] ;
3 -> 17 ;
18 [label="gini = 0.0\nsamples = 1\nvalue = [1, 0, 0]\nclass = barato", fillcolor="#e58139"] ;
17 -> 18 ;
19 [label="gini = 0.0\nsamples = 1\nvalue = [0, 1, 0]\nclass = media", fillcolor="#39e581"] ;
17 -> 19 ;
20 [label="bathrooms <= 0.5\ngini = 0.114\nsamples = 33\nvalue = [2, 31, 0]\nclass = media", fillcolor="#46e789"] ;
2 -> 20 ;
21 [label="gini = 0.0\nsamples = 18\nvalue = [0, 18, 0]\nclass = media", fillcolor="#39e581"] ;
20 -> 21 ;
22 [label="condition <= 0.5\ngini = 0.231\nsamples = 15\nvalue = [2, 13, 0]\nclass = media", fillcolor="#57e994"] ;
20 -> 22 ;
23 [label="gini = 0.0\nsamples = 5\nvalue = [0, 5, 0]\nclass = media", fillcolor="#39e581"] ;
22 -> 23 ;
24 [label="sqft_living <= 0.5\ngini = 0.32\nsamples = 10\nvalue = [2, 8, 0]\nclass = media", fillcolor="#6aeca0"] ;
22 -> 24 ;
25 [label="gini = 0.0\nsamples = 3\nvalue = [0, 3, 0]\nclass = media", fillcolor="#39e581"] ;
24 -> 25 ;
26 [label="sqft_above <= 0.5\ngini = 0.408\nsamples = 7\nvalue = [2, 5, 0]\nclass = media", fillcolor="#88efb3"] ;
24 -> 26 ;
27 [label="bedrooms <= 0.5\ngini = 0.48\nsamples = 5\nvalue = [2, 3, 0]\nclass = media", fillcolor="#bdf6d5"] ;
26 -> 27 ;
28 [label="gini = 0.0\nsamples = 1\nvalue = [1, 0, 0]\nclass = barato", fillcolor="#e58139"] ;
27 -> 28 ;
29 [label="grade <= 0.5\ngini = 0.375\nsamples = 4\nvalue = [1, 3, 0]\nclass = media", fillcolor="#7beeab"] ;
27 -> 29 ;
30 [label="gini = 0.444\nsamples = 3\nvalue = [1, 2, 0]\nclass = media", fillcolor="#9cf2c0"] ;
29 -> 30 ;
31 [label="gini = 0.0\nsamples = 1\nvalue = [0, 1, 0]\nclass = media", fillcolor="#39e581"] ;
29 -> 31 ;
32 [label="gini = 0.0\nsamples = 2\nvalue = [0, 2, 0]\nclass = media", fillcolor="#39e581"] ;
26 -> 32 ;
33 [label="gini = 0.0\nsamples = 72\nvalue = [0, 72, 0]\nclass = media", fillcolor="#39e581"] ;
1 -> 33 ;
34 [label="sqft_basement <= 0.5\ngini = 0.366\nsamples = 178\nvalue = [20, 139, 19]\nclass = media", fillcolor="#6aeba0"] ;
0 -> 34 [labeldistance=2.5, labelangle=-45, headlabel="False"] ;
35 [label="bedrooms <= 0.5\ngini = 0.423\nsamples = 85\nvalue = [6, 62, 17]\nclass = media", fillcolor="#7ceeac"] ;
34 -> 35 ;
36 [label="condition <= 0.5\ngini = 0.483\nsamples = 66\nvalue = [5, 44, 17]\nclass = media", fillcolor="#92f1ba"] ;
35 -> 36 ;
37 [label="sqft_above <= 0.5\ngini = 0.48\nsamples = 44\nvalue = [5, 30, 9]\nclass = media", fillcolor="#88efb3"] ;
36 -> 37 ;
38 [label="floors <= 0.5\ngini = 0.508\nsamples = 31\nvalue = [3, 20, 8]\nclass = media", fillcolor="#98f1bd"] ;
37 -> 38 ;
39 [label="bathrooms <= 0.5\ngini = 0.49\nsamples = 29\nvalue = [2, 19, 8]\nclass = media", fillcolor="#97f1bd"] ;
38 -> 39 ;
40 [label="view <= 0.5\ngini = 0.472\nsamples = 28\nvalue = [2, 19, 7]\nclass = media", fillcolor="#8ef0b7"] ;
39 -> 40 ;
41 [label="gini = 0.462\nsamples = 26\nvalue = [2, 18, 6]\nclass = media", fillcolor="#88efb3"] ;
40 -> 41 ;
42 [label="gini = 0.5\nsamples = 2\nvalue = [0, 1, 1]\nclass = media", fillcolor="#ffffff"] ;
40 -> 42 ;
43 [label="gini = 0.0\nsamples = 1\nvalue = [0, 0, 1]\nclass = caro", fillcolor="#8139e5"] ;
39 -> 43 ;
44 [label="bathrooms <= 0.5\ngini = 0.5\nsamples = 2\nvalue = [1, 1, 0]\nclass = barato", fillcolor="#ffffff"] ;
38 -> 44 ;
45 [label="gini = 0.0\nsamples = 1\nvalue = [1, 0, 0]\nclass = barato", fillcolor="#e58139"] ;
44 -> 45 ;
46 [label="gini = 0.0\nsamples = 1\nvalue = [0, 1, 0]\nclass = media", fillcolor="#39e581"] ;
44 -> 46 ;
47 [label="grade <= 0.5\ngini = 0.379\nsamples = 13\nvalue = [2, 10, 1]\nclass = media", fillcolor="#6feca3"] ;
37 -> 47 ;
48 [label="bathrooms <= 0.5\ngini = 0.48\nsamples = 5\nvalue = [2, 3, 0]\nclass = media", fillcolor="#bdf6d5"] ;
47 -> 48 ;
49 [label="gini = 0.0\nsamples = 3\nvalue = [0, 3, 0]\nclass = media", fillcolor="#39e581"] ;
48 -> 49 ;
50 [label="gini = 0.0\nsamples = 2\nvalue = [2, 0, 0]\nclass = barato", fillcolor="#e58139"] ;
48 -> 50 ;
51 [label="floors <= 0.5\ngini = 0.219\nsamples = 8\nvalue = [0, 7, 1]\nclass = media", fillcolor="#55e993"] ;
47 -> 51 ;
52 [label="gini = 0.0\nsamples = 4\nvalue = [0, 4, 0]\nclass = media", fillcolor="#39e581"] ;
51 -> 52 ;
53 [label="view <= 0.5\ngini = 0.375\nsamples = 4\nvalue = [0, 3, 1]\nclass = media", fillcolor="#7beeab"] ;
51 -> 53 ;
54 [label="gini = 0.0\nsamples = 2\nvalue = [0, 2, 0]\nclass = media", fillcolor="#39e581"] ;
53 -> 54 ;
55 [label="gini = 0.5\nsamples = 2\nvalue = [0, 1, 1]\nclass = media", fillcolor="#ffffff"] ;
53 -> 55 ;
56 [label="view <= 0.5\ngini = 0.463\nsamples = 22\nvalue = [0, 14, 8]\nclass = media", fillcolor="#aaf4c9"] ;
36 -> 56 ;
57 [label="bathrooms <= 0.5\ngini = 0.42\nsamples = 20\nvalue = [0, 14, 6]\nclass = media", fillcolor="#8ef0b7"] ;
56 -> 57 ;
58 [label="sqft_above <= 0.5\ngini = 0.457\nsamples = 17\nvalue = [0, 11, 6]\nclass = media", fillcolor="#a5f3c6"] ;
57 -> 58 ;
59 [label="floors <= 0.5\ngini = 0.43\nsamples = 16\nvalue = [0, 11, 5]\nclass = media", fillcolor="#93f1ba"] ;
58 -> 59 ;
60 [label="grade <= 0.5\ngini = 0.444\nsamples = 15\nvalue = [0, 10, 5]\nclass = media", fillcolor="#9cf2c0"] ;
59 -> 60 ;
61 [label="gini = 0.426\nsamples = 13\nvalue = [0, 9, 4]\nclass = media", fillcolor="#91f1b9"] ;
60 -> 61 ;
62 [label="gini = 0.5\nsamples = 2\nvalue = [0, 1, 1]\nclass = media", fillcolor="#ffffff"] ;
60 -> 62 ;
63 [label="gini = 0.0\nsamples = 1\nvalue = [0, 1, 0]\nclass = media", fillcolor="#39e581"] ;
59 -> 63 ;
64 [label="gini = 0.0\nsamples = 1\nvalue = [0, 0, 1]\nclass = caro", fillcolor="#8139e5"] ;
58 -> 64 ;
65 [label="gini = 0.0\nsamples = 3\nvalue = [0, 3, 0]\nclass = media", fillcolor="#39e581"] ;
57 -> 65 ;
66 [label="gini = 0.0\nsamples = 2\nvalue = [0, 0, 2]\nclass = caro", fillcolor="#8139e5"] ;
56 -> 66 ;
67 [label="view <= 0.5\ngini = 0.1\nsamples = 19\nvalue = [1, 18, 0]\nclass = media", fillcolor="#44e688"] ;
35 -> 67 ;
68 [label="gini = 0.0\nsamples = 13\nvalue = [0, 13, 0]\nclass = media", fillcolor="#39e581"] ;
67 -> 68 ;
69 [label="floors <= 0.5\ngini = 0.278\nsamples = 6\nvalue = [1, 5, 0]\nclass = media", fillcolor="#61ea9a"] ;
67 -> 69 ;
70 [label="gini = 0.0\nsamples = 4\nvalue = [0, 4, 0]\nclass = media", fillcolor="#39e581"] ;
69 -> 70 ;
71 [label="condition <= 0.5\ngini = 0.5\nsamples = 2\nvalue = [1, 1, 0]\nclass = barato", fillcolor="#ffffff"] ;
69 -> 71 ;
72 [label="gini = 0.0\nsamples = 1\nvalue = [1, 0, 0]\nclass = barato", fillcolor="#e58139"] ;
71 -> 72 ;
73 [label="gini = 0.0\nsamples = 1\nvalue = [0, 1, 0]\nclass = media", fillcolor="#39e581"] ;
71 -> 73 ;
74 [label="sqft_living <= 0.5\ngini = 0.291\nsamples = 93\nvalue = [14, 77, 2]\nclass = media", fillcolor="#61ea9b"] ;
34 -> 74 ;
75 [label="gini = 0.0\nsamples = 19\nvalue = [0, 19, 0]\nclass = media", fillcolor="#39e581"] ;
74 -> 75 ;
76 [label="grade <= 0.5\ngini = 0.349\nsamples = 74\nvalue = [14, 58, 2]\nclass = media", fillcolor="#6eeca3"] ;
74 -> 76 ;
77 [label="condition <= 0.5\ngini = 0.375\nsamples = 28\nvalue = [7, 21, 0]\nclass = media", fillcolor="#7beeab"] ;
76 -> 77 ;
78 [label="sqft_above <= 0.5\ngini = 0.469\nsamples = 8\nvalue = [3, 5, 0]\nclass = media", fillcolor="#b0f5cd"] ;
77 -> 78 ;
79 [label="bedrooms <= 0.5\ngini = 0.408\nsamples = 7\nvalue = [2, 5, 0]\nclass = media", fillcolor="#88efb3"] ;
78 -> 79 ;
80 [label="gini = 0.0\nsamples = 3\nvalue = [0, 3, 0]\nclass = media", fillcolor="#39e581"] ;
79 -> 80 ;
81 [label="bathrooms <= 0.5\ngini = 0.5\nsamples = 4\nvalue = [2, 2, 0]\nclass = barato", fillcolor="#ffffff"] ;
79 -> 81 ;
82 [label="view <= 0.5\ngini = 0.444\nsamples = 3\nvalue = [1, 2, 0]\nclass = media", fillcolor="#9cf2c0"] ;
81 -> 82 ;
83 [label="gini = 0.5\nsamples = 2\nvalue = [1, 1, 0]\nclass = barato", fillcolor="#ffffff"] ;
82 -> 83 ;
84 [label="gini = 0.0\nsamples = 1\nvalue = [0, 1, 0]\nclass = media", fillcolor="#39e581"] ;
82 -> 84 ;
85 [label="gini = 0.0\nsamples = 1\nvalue = [1, 0, 0]\nclass = barato", fillcolor="#e58139"] ;
81 -> 85 ;
86 [label="gini = 0.0\nsamples = 1\nvalue = [1, 0, 0]\nclass = barato", fillcolor="#e58139"] ;
78 -> 86 ;
87 [label="bathrooms <= 0.5\ngini = 0.32\nsamples = 20\nvalue = [4, 16, 0]\nclass = media", fillcolor="#6aeca0"] ;
77 -> 87 ;
88 [label="view <= 0.5\ngini = 0.408\nsamples = 7\nvalue = [2, 5, 0]\nclass = media", fillcolor="#88efb3"] ;
87 -> 88 ;
89 [label="bedrooms <= 0.5\ngini = 0.444\nsamples = 6\nvalue = [2, 4, 0]\nclass = media", fillcolor="#9cf2c0"] ;
88 -> 89 ;
90 [label="gini = 0.444\nsamples = 3\nvalue = [1, 2, 0]\nclass = media", fillcolor="#9cf2c0"] ;
89 -> 90 ;
91 [label="gini = 0.444\nsamples = 3\nvalue = [1, 2, 0]\nclass = media", fillcolor="#9cf2c0"] ;
89 -> 91 ;
92 [label="gini = 0.0\nsamples = 1\nvalue = [0, 1, 0]\nclass = media", fillcolor="#39e581"] ;
88 -> 92 ;
93 [label="view <= 0.5\ngini = 0.26\nsamples = 13\nvalue = [2, 11, 0]\nclass = media", fillcolor="#5dea98"] ;
87 -> 93 ;
94 [label="sqft_above <= 0.5\ngini = 0.198\nsamples = 9\nvalue = [1, 8, 0]\nclass = media", fillcolor="#52e891"] ;
93 -> 94 ;
95 [label="gini = 0.0\nsamples = 4\nvalue = [0, 4, 0]\nclass = media", fillcolor="#39e581"] ;
94 -> 95 ;
96 [label="floors <= 0.5\ngini = 0.32\nsamples = 5\nvalue = [1, 4, 0]\nclass = media", fillcolor="#6aeca0"] ;
94 -> 96 ;
97 [label="gini = 0.375\nsamples = 4\nvalue = [1, 3, 0]\nclass = media", fillcolor="#7beeab"] ;
96 -> 97 ;
98 [label="gini = 0.0\nsamples = 1\nvalue = [0, 1, 0]\nclass = media", fillcolor="#39e581"] ;
96 -> 98 ;
99 [label="sqft_above <= 0.5\ngini = 0.375\nsamples = 4\nvalue = [1, 3, 0]\nclass = media", fillcolor="#7beeab"] ;
93 -> 99 ;
100 [label="gini = 0.5\nsamples = 2\nvalue = [1, 1, 0]\nclass = barato", fillcolor="#ffffff"] ;
99 -> 100 ;
101 [label="gini = 0.0\nsamples = 2\nvalue = [0, 2, 0]\nclass = media", fillcolor="#39e581"] ;
99 -> 101 ;
102 [label="bedrooms <= 0.5\ngini = 0.328\nsamples = 46\nvalue = [7, 37, 2]\nclass = media", fillcolor="#67eb9e"] ;
76 -> 102 ;
103 [label="sqft_above <= 0.5\ngini = 0.269\nsamples = 25\nvalue = [4, 21, 0]\nclass = media", fillcolor="#5fea99"] ;
102 -> 103 ;
104 [label="gini = 0.0\nsamples = 5\nvalue = [0, 5, 0]\nclass = media", fillcolor="#39e581"] ;
103 -> 104 ;
105 [label="floors <= 0.5\ngini = 0.32\nsamples = 20\nvalue = [4, 16, 0]\nclass = media", fillcolor="#6aeca0"] ;
103 -> 105 ;
106 [label="bathrooms <= 0.5\ngini = 0.298\nsamples = 11\nvalue = [2, 9, 0]\nclass = media", fillcolor="#65eb9d"] ;
105 -> 106 ;
107 [label="condition <= 0.5\ngini = 0.444\nsamples = 3\nvalue = [1, 2, 0]\nclass = media", fillcolor="#9cf2c0"] ;
106 -> 107 ;
108 [label="gini = 0.0\nsamples = 1\nvalue = [0, 1, 0]\nclass = media", fillcolor="#39e581"] ;
107 -> 108 ;
109 [label="gini = 0.5\nsamples = 2\nvalue = [1, 1, 0]\nclass = barato", fillcolor="#ffffff"] ;
107 -> 109 ;
110 [label="condition <= 0.5\ngini = 0.219\nsamples = 8\nvalue = [1, 7, 0]\nclass = media", fillcolor="#55e993"] ;
106 -> 110 ;
111 [label="view <= 0.5\ngini = 0.375\nsamples = 4\nvalue = [1, 3, 0]\nclass = media", fillcolor="#7beeab"] ;
110 -> 111 ;
112 [label="gini = 0.0\nsamples = 1\nvalue = [0, 1, 0]\nclass = media", fillcolor="#39e581"] ;
111 -> 112 ;
113 [label="gini = 0.444\nsamples = 3\nvalue = [1, 2, 0]\nclass = media", fillcolor="#9cf2c0"] ;
111 -> 113 ;
114 [label="gini = 0.0\nsamples = 4\nvalue = [0, 4, 0]\nclass = media", fillcolor="#39e581"] ;
110 -> 114 ;
115 [label="bathrooms <= 0.5\ngini = 0.346\nsamples = 9\nvalue = [2, 7, 0]\nclass = media", fillcolor="#72eca5"] ;
105 -> 115 ;
116 [label="gini = 0.0\nsamples = 2\nvalue = [0, 2, 0]\nclass = media", fillcolor="#39e581"] ;
115 -> 116 ;
117 [label="view <= 0.5\ngini = 0.408\nsamples = 7\nvalue = [2, 5, 0]\nclass = media", fillcolor="#88efb3"] ;
115 -> 117 ;
118 [label="condition <= 0.5\ngini = 0.5\nsamples = 2\nvalue = [1, 1, 0]\nclass = barato", fillcolor="#ffffff"] ;
117 -> 118 ;
119 [label="gini = 0.0\nsamples = 1\nvalue = [0, 1, 0]\nclass = media", fillcolor="#39e581"] ;
118 -> 119 ;
120 [label="gini = 0.0\nsamples = 1\nvalue = [1, 0, 0]\nclass = barato", fillcolor="#e58139"] ;
118 -> 120 ;
121 [label="condition <= 0.5\ngini = 0.32\nsamples = 5\nvalue = [1, 4, 0]\nclass = media", fillcolor="#6aeca0"] ;
117 -> 121 ;
122 [label="gini = 0.444\nsamples = 3\nvalue = [1, 2, 0]\nclass = media", fillcolor="#9cf2c0"] ;
121 -> 122 ;
123 [label="gini = 0.0\nsamples = 2\nvalue = [0, 2, 0]\nclass = media", fillcolor="#39e581"] ;
121 -> 123 ;
124 [label="condition <= 0.5\ngini = 0.39\nsamples = 21\nvalue = [3, 16, 2]\nclass = media", fillcolor="#70eca4"] ;
102 -> 124 ;
125 [label="floors <= 0.5\ngini = 0.219\nsamples = 8\nvalue = [1, 7, 0]\nclass = media", fillcolor="#55e993"] ;
124 -> 125 ;
126 [label="gini = 0.0\nsamples = 2\nvalue = [0, 2, 0]\nclass = media", fillcolor="#39e581"] ;
125 -> 126 ;
127 [label="gini = 0.278\nsamples = 6\nvalue = [1, 5, 0]\nclass = media", fillcolor="#61ea9a"] ;
125 -> 127 ;
128 [label="view <= 0.5\ngini = 0.473\nsamples = 13\nvalue = [2, 9, 2]\nclass = media", fillcolor="#81eeaf"] ;
124 -> 128 ;
129 [label="sqft_above <= 0.5\ngini = 0.278\nsamples = 6\nvalue = [1, 5, 0]\nclass = media", fillcolor="#61ea9a"] ;
128 -> 129 ;
130 [label="gini = 0.0\nsamples = 1\nvalue = [1, 0, 0]\nclass = barato", fillcolor="#e58139"] ;
129 -> 130 ;
131 [label="gini = 0.0\nsamples = 5\nvalue = [0, 5, 0]\nclass = media", fillcolor="#39e581"] ;
129 -> 131 ;
132 [label="floors <= 0.5\ngini = 0.571\nsamples = 7\nvalue = [1, 4, 2]\nclass = media", fillcolor="#b0f5cd"] ;
128 -> 132 ;
133 [label="sqft_above <= 0.5\ngini = 0.5\nsamples = 6\nvalue = [1, 4, 1]\nclass = media", fillcolor="#88efb3"] ;
132 -> 133 ;
134 [label="gini = 0.0\nsamples = 1\nvalue = [0, 1, 0]\nclass = media", fillcolor="#39e581"] ;
133 -> 134 ;
135 [label="gini = 0.56\nsamples = 5\nvalue = [1, 3, 1]\nclass = media", fillcolor="#9cf2c0"] ;
133 -> 135 ;
136 [label="gini = 0.0\nsamples = 1\nvalue = [0, 0, 1]\nclass = caro", fillcolor="#8139e5"] ;
132 -> 136 ;
}