digraph Tree {
node [shape=box, style="filled, rounded", color="black", fontname=helvetica] ;
edge [fontname=helvetica] ;
0 [label="sqft_basement <= 0.5\ngini = 0.47\nsamples = 320\nvalue = [199, 121]\nclass = False", fillcolor="#f5ceb1"] ;
1 [label="floors <= 0.5\ngini = 0.495\nsamples = 176\nvalue = [79, 97]\nclass = True", fillcolor="#daedfa"] ;
0 -> 1 [labeldistance=2.5, labelangle=45, headlabel="True"] ;
2 [label="sqft_above <= 0.5\ngini = 0.421\nsamples = 103\nvalue = [31, 72]\nclass = True", fillcolor="#8ec7f0"] ;
1 -> 2 ;
3 [label="bedrooms <= 0.5\ngini = 0.343\nsamples = 82\nvalue = [18, 64]\nclass = True", fillcolor="#71b9ec"] ;
2 -> 3 ;
4 [label="condition <= 0.5\ngini = 0.298\nsamples = 77\nvalue = [14, 63]\nclass = True", fillcolor="#65b3eb"] ;
3 -> 4 ;
5 [label="sqft_lot <= 0.5\ngini = 0.37\nsamples = 49\nvalue = [12, 37]\nclass = True", fillcolor="#79bded"] ;
4 -> 5 ;
6 [label="view <= 0.5\ngini = 0.255\nsamples = 20\nvalue = [3, 17]\nclass = True", fillcolor="#5caeea"] ;
5 -> 6 ;
7 [label="grade <= 0.5\ngini = 0.219\nsamples = 16\nvalue = [2, 14]\nclass = True", fillcolor="#55abe9"] ;
6 -> 7 ;
8 [label="gini = 0.245\nsamples = 14\nvalue = [2, 12]\nclass = True", fillcolor="#5aade9"] ;
7 -> 8 ;
9 [label="gini = 0.0\nsamples = 2\nvalue = [0, 2]\nclass = True", fillcolor="#399de5"] ;
7 -> 9 ;
10 [label="gini = 0.375\nsamples = 4\nvalue = [1, 3]\nclass = True", fillcolor="#7bbeee"] ;
6 -> 10 ;
11 [label="grade <= 0.5\ngini = 0.428\nsamples = 29\nvalue = [9, 20]\nclass = True", fillcolor="#92c9f1"] ;
5 -> 11 ;
12 [label="view <= 0.5\ngini = 0.436\nsamples = 28\nvalue = [9, 19]\nclass = True", fillcolor="#97cbf1"] ;
11 -> 12 ;
13 [label="gini = 0.426\nsamples = 26\nvalue = [8, 18]\nclass = True", fillcolor="#91c9f1"] ;
12 -> 13 ;
14 [label="gini = 0.5\nsamples = 2\nvalue = [1, 1]\nclass = False", fillcolor="#ffffff"] ;
12 -> 14 ;
15 [label="gini = 0.0\nsamples = 1\nvalue = [0, 1]\nclass = True", fillcolor="#399de5"] ;
11 -> 15 ;
16 [label="view <= 0.5\ngini = 0.133\nsamples = 28\nvalue = [2, 26]\nclass = True", fillcolor="#48a5e7"] ;
4 -> 16 ;
17 [label="grade <= 0.5\ngini = 0.147\nsamples = 25\nvalue = [2, 23]\nclass = True", fillcolor="#4aa6e7"] ;
16 -> 17 ;
18 [label="sqft_lot <= 0.5\ngini = 0.159\nsamples = 23\nvalue = [2, 21]\nclass = True", fillcolor="#4ca6e7"] ;
17 -> 18 ;
19 [label="gini = 0.198\nsamples = 9\nvalue = [1, 8]\nclass = True", fillcolor="#52a9e8"] ;
18 -> 19 ;
20 [label="bathrooms <= 0.5\ngini = 0.133\nsamples = 14\nvalue = [1, 13]\nclass = True", fillcolor="#48a5e7"] ;
18 -> 20 ;
21 [label="gini = 0.142\nsamples = 13\nvalue = [1, 12]\nclass = True", fillcolor="#49a5e7"] ;
20 -> 21 ;
22 [label="gini = 0.0\nsamples = 1\nvalue = [0, 1]\nclass = True", fillcolor="#399de5"] ;
20 -> 22 ;
23 [label="gini = 0.0\nsamples = 2\nvalue = [0, 2]\nclass = True", fillcolor="#399de5"] ;
17 -> 23 ;
24 [label="gini = 0.0\nsamples = 3\nvalue = [0, 3]\nclass = True", fillcolor="#399de5"] ;
16 -> 24 ;
25 [label="view <= 0.5\ngini = 0.32\nsamples = 5\nvalue = [4, 1]\nclass = False", fillcolor="#eca06a"] ;
3 -> 25 ;
26 [label="gini = 0.0\nsamples = 3\nvalue = [3, 0]\nclass = False", fillcolor="#e58139"] ;
25 -> 26 ;
27 [label="gini = 0.5\nsamples = 2\nvalue = [1, 1]\nclass = False", fillcolor="#ffffff"] ;
25 -> 27 ;
28 [label="condition <= 0.5\ngini = 0.472\nsamples = 21\nvalue = [13, 8]\nclass = False", fillcolor="#f5cfb3"] ;
2 -> 28 ;
29 [label="grade <= 0.5\ngini = 0.278\nsamples = 12\nvalue = [10, 2]\nclass = False", fillcolor="#ea9a61"] ;
28 -> 29 ;
30 [label="gini = 0.0\nsamples = 6\nvalue = [6, 0]\nclass = False", fillcolor="#e58139"] ;
29 -> 30 ;
31 [label="view <= 0.5\ngini = 0.444\nsamples = 6\nvalue = [4, 2]\nclass = False", fillcolor="#f2c09c"] ;
29 -> 31 ;
32 [label="sqft_lot <= 0.5\ngini = 0.5\nsamples = 4\nvalue = [2, 2]\nclass = False", fillcolor="#ffffff"] ;
31 -> 32 ;
33 [label="gini = 0.0\nsamples = 1\nvalue = [1, 0]\nclass = False", fillcolor="#e58139"] ;
32 -> 33 ;
34 [label="bedrooms <= 0.5\ngini = 0.444\nsamples = 3\nvalue = [1, 2]\nclass = True", fillcolor="#9ccef2"] ;
32 -> 34 ;
35 [label="bathrooms <= 0.5\ngini = 0.5\nsamples = 2\nvalue = [1, 1]\nclass = False", fillcolor="#ffffff"] ;
34 -> 35 ;
36 [label="gini = 0.0\nsamples = 1\nvalue = [1, 0]\nclass = False", fillcolor="#e58139"] ;
35 -> 36 ;
37 [label="gini = 0.0\nsamples = 1\nvalue = [0, 1]\nclass = True", fillcolor="#399de5"] ;
35 -> 37 ;
38 [label="gini = 0.0\nsamples = 1\nvalue = [0, 1]\nclass = True", fillcolor="#399de5"] ;
34 -> 38 ;
39 [label="gini = 0.0\nsamples = 2\nvalue = [2, 0]\nclass = False", fillcolor="#e58139"] ;
31 -> 39 ;
40 [label="bathrooms <= 0.5\ngini = 0.444\nsamples = 9\nvalue = [3, 6]\nclass = True", fillcolor="#9ccef2"] ;
28 -> 40 ;
41 [label="gini = 0.0\nsamples = 3\nvalue = [0, 3]\nclass = True", fillcolor="#399de5"] ;
40 -> 41 ;
42 [label="view <= 0.5\ngini = 0.5\nsamples = 6\nvalue = [3, 3]\nclass = False", fillcolor="#ffffff"] ;
40 -> 42 ;
43 [label="sqft_lot <= 0.5\ngini = 0.375\nsamples = 4\nvalue = [3, 1]\nclass = False", fillcolor="#eeab7b"] ;
42 -> 43 ;
44 [label="gini = 0.0\nsamples = 2\nvalue = [2, 0]\nclass = False", fillcolor="#e58139"] ;
43 -> 44 ;
45 [label="bedrooms <= 0.5\ngini = 0.5\nsamples = 2\nvalue = [1, 1]\nclass = False", fillcolor="#ffffff"] ;
43 -> 45 ;
46 [label="gini = 0.0\nsamples = 1\nvalue = [0, 1]\nclass = True", fillcolor="#399de5"] ;
45 -> 46 ;
47 [label="gini = 0.0\nsamples = 1\nvalue = [1, 0]\nclass = False", fillcolor="#e58139"] ;
45 -> 47 ;
48 [label="gini = 0.0\nsamples = 2\nvalue = [0, 2]\nclass = True", fillcolor="#399de5"] ;
42 -> 48 ;
49 [label="bedrooms <= 0.5\ngini = 0.45\nsamples = 73\nvalue = [48, 25]\nclass = False", fillcolor="#f3c3a0"] ;
1 -> 49 ;
50 [label="waterfront  <= 0.5\ngini = 0.48\nsamples = 60\nvalue = [36, 24]\nclass = False", fillcolor="#f6d5bd"] ;
49 -> 50 ;
51 [label="bathrooms <= 0.5\ngini = 0.476\nsamples = 59\nvalue = [36, 23]\nclass = False", fillcolor="#f6d2b8"] ;
50 -> 51 ;
52 [label="view <= 0.5\ngini = 0.497\nsamples = 13\nvalue = [6, 7]\nclass = True", fillcolor="#e3f1fb"] ;
51 -> 52 ;
53 [label="condition <= 0.5\ngini = 0.5\nsamples = 12\nvalue = [6, 6]\nclass = False", fillcolor="#ffffff"] ;
52 -> 53 ;
54 [label="sqft_lot <= 0.5\ngini = 0.496\nsamples = 11\nvalue = [6, 5]\nclass = False", fillcolor="#fbeade"] ;
53 -> 54 ;
55 [label="sqft_above <= 0.5\ngini = 0.494\nsamples = 9\nvalue = [4, 5]\nclass = True", fillcolor="#d7ebfa"] ;
54 -> 55 ;
56 [label="grade <= 0.5\ngini = 0.49\nsamples = 7\nvalue = [3, 4]\nclass = True", fillcolor="#cee6f8"] ;
55 -> 56 ;
57 [label="gini = 0.0\nsamples = 1\nvalue = [0, 1]\nclass = True", fillcolor="#399de5"] ;
56 -> 57 ;
58 [label="gini = 0.5\nsamples = 6\nvalue = [3, 3]\nclass = False", fillcolor="#ffffff"] ;
56 -> 58 ;
59 [label="grade <= 0.5\ngini = 0.5\nsamples = 2\nvalue = [1, 1]\nclass = False", fillcolor="#ffffff"] ;
55 -> 59 ;
60 [label="gini = 0.0\nsamples = 1\nvalue = [1, 0]\nclass = False", fillcolor="#e58139"] ;
59 -> 60 ;
61 [label="gini = 0.0\nsamples = 1\nvalue = [0, 1]\nclass = True", fillcolor="#399de5"] ;
59 -> 61 ;
62 [label="gini = 0.0\nsamples = 2\nvalue = [2, 0]\nclass = False", fillcolor="#e58139"] ;
54 -> 62 ;
63 [label="gini = 0.0\nsamples = 1\nvalue = [0, 1]\nclass = True", fillcolor="#399de5"] ;
53 -> 63 ;
64 [label="gini = 0.0\nsamples = 1\nvalue = [0, 1]\nclass = True", fillcolor="#399de5"] ;
52 -> 64 ;
65 [label="sqft_lot <= 0.5\ngini = 0.454\nsamples = 46\nvalue = [30, 16]\nclass = False", fillcolor="#f3c4a3"] ;
51 -> 65 ;
66 [label="grade <= 0.5\ngini = 0.439\nsamples = 40\nvalue = [27, 13]\nclass = False", fillcolor="#f2be98"] ;
65 -> 66 ;
67 [label="view <= 0.5\ngini = 0.48\nsamples = 5\nvalue = [3, 2]\nclass = False", fillcolor="#f6d5bd"] ;
66 -> 67 ;
68 [label="condition <= 0.5\ngini = 0.375\nsamples = 4\nvalue = [3, 1]\nclass = False", fillcolor="#eeab7b"] ;
67 -> 68 ;
69 [label="gini = 0.0\nsamples = 2\nvalue = [2, 0]\nclass = False", fillcolor="#e58139"] ;
68 -> 69 ;
70 [label="gini = 0.5\nsamples = 2\nvalue = [1, 1]\nclass = False", fillcolor="#ffffff"] ;
68 -> 70 ;
71 [label="gini = 0.0\nsamples = 1\nvalue = [0, 1]\nclass = True", fillcolor="#399de5"] ;
67 -> 71 ;
72 [label="view <= 0.5\ngini = 0.431\nsamples = 35\nvalue = [24, 11]\nclass = False", fillcolor="#f1bb94"] ;
66 -> 72 ;
73 [label="sqft_above <= 0.5\ngini = 0.452\nsamples = 29\nvalue = [19, 10]\nclass = False", fillcolor="#f3c3a1"] ;
72 -> 73 ;
74 [label="gini = 0.465\nsamples = 19\nvalue = [12, 7]\nclass = False", fillcolor="#f4caac"] ;
73 -> 74 ;
75 [label="sqft_living <= 0.5\ngini = 0.42\nsamples = 10\nvalue = [7, 3]\nclass = False", fillcolor="#f0b78e"] ;
73 -> 75 ;
76 [label="gini = 0.408\nsamples = 7\nvalue = [5, 2]\nclass = False", fillcolor="#efb388"] ;
75 -> 76 ;
77 [label="gini = 0.444\nsamples = 3\nvalue = [2, 1]\nclass = False", fillcolor="#f2c09c"] ;
75 -> 77 ;
78 [label="sqft_living <= 0.5\ngini = 0.278\nsamples = 6\nvalue = [5, 1]\nclass = False", fillcolor="#ea9a61"] ;
72 -> 78 ;
79 [label="sqft_above <= 0.5\ngini = 0.375\nsamples = 4\nvalue = [3, 1]\nclass = False", fillcolor="#eeab7b"] ;
78 -> 79 ;
80 [label="gini = 0.0\nsamples = 1\nvalue = [1, 0]\nclass = False", fillcolor="#e58139"] ;
79 -> 80 ;
81 [label="gini = 0.444\nsamples = 3\nvalue = [2, 1]\nclass = False", fillcolor="#f2c09c"] ;
79 -> 81 ;
82 [label="gini = 0.0\nsamples = 2\nvalue = [2, 0]\nclass = False", fillcolor="#e58139"] ;
78 -> 82 ;
83 [label="grade <= 0.5\ngini = 0.5\nsamples = 6\nvalue = [3, 3]\nclass = False", fillcolor="#ffffff"] ;
65 -> 83 ;
84 [label="gini = 0.0\nsamples = 2\nvalue = [2, 0]\nclass = False", fillcolor="#e58139"] ;
83 -> 84 ;
85 [label="sqft_above <= 0.5\ngini = 0.375\nsamples = 4\nvalue = [1, 3]\nclass = True", fillcolor="#7bbeee"] ;
83 -> 85 ;
86 [label="gini = 0.0\nsamples = 1\nvalue = [0, 1]\nclass = True", fillcolor="#399de5"] ;
85 -> 86 ;
87 [label="view <= 0.5\ngini = 0.444\nsamples = 3\nvalue = [1, 2]\nclass = True", fillcolor="#9ccef2"] ;
85 -> 87 ;
88 [label="gini = 0.5\nsamples = 2\nvalue = [1, 1]\nclass = False", fillcolor="#ffffff"] ;
87 -> 88 ;
89 [label="gini = 0.0\nsamples = 1\nvalue = [0, 1]\nclass = True", fillcolor="#399de5"] ;
87 -> 89 ;
90 [label="gini = 0.0\nsamples = 1\nvalue = [0, 1]\nclass = True", fillcolor="#399de5"] ;
50 -> 90 ;
91 [label="view <= 0.5\ngini = 0.142\nsamples = 13\nvalue = [12, 1]\nclass = False", fillcolor="#e78c49"] ;
49 -> 91 ;
92 [label="gini = 0.0\nsamples = 11\nvalue = [11, 0]\nclass = False", fillcolor="#e58139"] ;
91 -> 92 ;
93 [label="grade <= 0.5\ngini = 0.5\nsamples = 2\nvalue = [1, 1]\nclass = False", fillcolor="#ffffff"] ;
91 -> 93 ;
94 [label="gini = 0.0\nsamples = 1\nvalue = [1, 0]\nclass = False", fillcolor="#e58139"] ;
93 -> 94 ;
95 [label="gini = 0.0\nsamples = 1\nvalue = [0, 1]\nclass = True", fillcolor="#399de5"] ;
93 -> 95 ;
96 [label="view <= 0.5\ngini = 0.278\nsamples = 144\nvalue = [120, 24]\nclass = False", fillcolor="#ea9a61"] ;
0 -> 96 [labeldistance=2.5, labelangle=-45, headlabel="False"] ;
97 [label="grade <= 0.5\ngini = 0.157\nsamples = 93\nvalue = [85, 8]\nclass = False", fillcolor="#e78d4c"] ;
96 -> 97 ;
98 [label="sqft_living <= 0.5\ngini = 0.092\nsamples = 62\nvalue = [59, 3]\nclass = False", fillcolor="#e68743"] ;
97 -> 98 ;
99 [label="condition <= 0.5\ngini = 0.161\nsamples = 34\nvalue = [31, 3]\nclass = False", fillcolor="#e88d4c"] ;
98 -> 99 ;
100 [label="gini = 0.0\nsamples = 13\nvalue = [13, 0]\nclass = False", fillcolor="#e58139"] ;
99 -> 100 ;
101 [label="bedrooms <= 0.5\ngini = 0.245\nsamples = 21\nvalue = [18, 3]\nclass = False", fillcolor="#e9965a"] ;
99 -> 101 ;
102 [label="sqft_lot <= 0.5\ngini = 0.291\nsamples = 17\nvalue = [14, 3]\nclass = False", fillcolor="#eb9c63"] ;
101 -> 102 ;
103 [label="bathrooms <= 0.5\ngini = 0.408\nsamples = 7\nvalue = [5, 2]\nclass = False", fillcolor="#efb388"] ;
102 -> 103 ;
104 [label="gini = 0.32\nsamples = 5\nvalue = [4, 1]\nclass = False", fillcolor="#eca06a"] ;
103 -> 104 ;
105 [label="gini = 0.5\nsamples = 2\nvalue = [1, 1]\nclass = False", fillcolor="#ffffff"] ;
103 -> 105 ;
106 [label="bathrooms <= 0.5\ngini = 0.18\nsamples = 10\nvalue = [9, 1]\nclass = False", fillcolor="#e88f4f"] ;
102 -> 106 ;
107 [label="gini = 0.245\nsamples = 7\nvalue = [6, 1]\nclass = False", fillcolor="#e9965a"] ;
106 -> 107 ;
108 [label="gini = 0.0\nsamples = 3\nvalue = [3, 0]\nclass = False", fillcolor="#e58139"] ;
106 -> 108 ;
109 [label="gini = 0.0\nsamples = 4\nvalue = [4, 0]\nclass = False", fillcolor="#e58139"] ;
101 -> 109 ;
110 [label="gini = 0.0\nsamples = 28\nvalue = [28, 0]\nclass = False", fillcolor="#e58139"] ;
98 -> 110 ;
111 [label="bathrooms <= 0.5\ngini = 0.271\nsamples = 31\nvalue = [26, 5]\nclass = False", fillcolor="#ea995f"] ;
97 -> 111 ;
112 [label="condition <= 0.5\ngini = 0.5\nsamples = 6\nvalue = [3, 3]\nclass = False", fillcolor="#ffffff"] ;
111 -> 112 ;
113 [label="gini = 0.0\nsamples = 2\nvalue = [2, 0]\nclass = False", fillcolor="#e58139"] ;
112 -> 113 ;
114 [label="sqft_lot <= 0.5\ngini = 0.375\nsamples = 4\nvalue = [1, 3]\nclass = True", fillcolor="#7bbeee"] ;
112 -> 114 ;
115 [label="gini = 0.0\nsamples = 2\nvalue = [0, 2]\nclass = True", fillcolor="#399de5"] ;
114 -> 115 ;
116 [label="sqft_above <= 0.5\ngini = 0.5\nsamples = 2\nvalue = [1, 1]\nclass = False", fillcolor="#ffffff"] ;
114 -> 116 ;
117 [label="gini = 0.0\nsamples = 1\nvalue = [1, 0]\nclass = False", fillcolor="#e58139"] ;
116 -> 117 ;
118 [label="gini = 0.0\nsamples = 1\nvalue = [0, 1]\nclass = True", fillcolor="#399de5"] ;
116 -> 118 ;
119 [label="condition <= 0.5\ngini = 0.147\nsamples = 25\nvalue = [23, 2]\nclass = False", fillcolor="#e78c4a"] ;
111 -> 119 ;
120 [label="sqft_lot <= 0.5\ngini = 0.231\nsamples = 15\nvalue = [13, 2]\nclass = False", fillcolor="#e99457"] ;
119 -> 120 ;
121 [label="floors <= 0.5\ngini = 0.142\nsamples = 13\nvalue = [12, 1]\nclass = False", fillcolor="#e78c49"] ;
120 -> 121 ;
122 [label="sqft_above <= 0.5\ngini = 0.444\nsamples = 3\nvalue = [2, 1]\nclass = False", fillcolor="#f2c09c"] ;
121 -> 122 ;
123 [label="gini = 0.0\nsamples = 1\nvalue = [0, 1]\nclass = True", fillcolor="#399de5"] ;
122 -> 123 ;
124 [label="gini = 0.0\nsamples = 2\nvalue = [2, 0]\nclass = False", fillcolor="#e58139"] ;
122 -> 124 ;
125 [label="gini = 0.0\nsamples = 10\nvalue = [10, 0]\nclass = False", fillcolor="#e58139"] ;
121 -> 125 ;
126 [label="floors <= 0.5\ngini = 0.5\nsamples = 2\nvalue = [1, 1]\nclass = False", fillcolor="#ffffff"] ;
120 -> 126 ;
127 [label="gini = 0.0\nsamples = 1\nvalue = [1, 0]\nclass = False", fillcolor="#e58139"] ;
126 -> 127 ;
128 [label="gini = 0.0\nsamples = 1\nvalue = [0, 1]\nclass = True", fillcolor="#399de5"] ;
126 -> 128 ;
129 [label="gini = 0.0\nsamples = 10\nvalue = [10, 0]\nclass = False", fillcolor="#e58139"] ;
119 -> 129 ;
130 [label="sqft_lot <= 0.5\ngini = 0.431\nsamples = 51\nvalue = [35, 16]\nclass = False", fillcolor="#f1bb94"] ;
96 -> 130 ;
131 [label="sqft_above <= 0.5\ngini = 0.444\nsamples = 12\nvalue = [4, 8]\nclass = True", fillcolor="#9ccef2"] ;
130 -> 131 ;
132 [label="gini = 0.0\nsamples = 4\nvalue = [0, 4]\nclass = True", fillcolor="#399de5"] ;
131 -> 132 ;
133 [label="condition <= 0.5\ngini = 0.5\nsamples = 8\nvalue = [4, 4]\nclass = False", fillcolor="#ffffff"] ;
131 -> 133 ;
134 [label="floors <= 0.5\ngini = 0.444\nsamples = 6\nvalue = [2, 4]\nclass = True", fillcolor="#9ccef2"] ;
133 -> 134 ;
135 [label="gini = 0.0\nsamples = 1\nvalue = [0, 1]\nclass = True", fillcolor="#399de5"] ;
134 -> 135 ;
136 [label="bedrooms <= 0.5\ngini = 0.48\nsamples = 5\nvalue = [2, 3]\nclass = True", fillcolor="#bddef6"] ;
134 -> 136 ;
137 [label="gini = 0.5\nsamples = 2\nvalue = [1, 1]\nclass = False", fillcolor="#ffffff"] ;
136 -> 137 ;
138 [label="gini = 0.444\nsamples = 3\nvalue = [1, 2]\nclass = True", fillcolor="#9ccef2"] ;
136 -> 138 ;
139 [label="gini = 0.0\nsamples = 2\nvalue = [2, 0]\nclass = False", fillcolor="#e58139"] ;
133 -> 139 ;
140 [label="grade <= 0.5\ngini = 0.326\nsamples = 39\nvalue = [31, 8]\nclass = False", fillcolor="#eca26c"] ;
130 -> 140 ;
141 [label="gini = 0.0\nsamples = 7\nvalue = [7, 0]\nclass = False", fillcolor="#e58139"] ;
140 -> 141 ;
142 [label="bathrooms <= 0.5\ngini = 0.375\nsamples = 32\nvalue = [24, 8]\nclass = False", fillcolor="#eeab7b"] ;
140 -> 142 ;
143 [label="sqft_above <= 0.5\ngini = 0.49\nsamples = 7\nvalue = [4, 3]\nclass = False", fillcolor="#f8e0ce"] ;
142 -> 143 ;
144 [label="condition <= 0.5\ngini = 0.5\nsamples = 4\nvalue = [2, 2]\nclass = False", fillcolor="#ffffff"] ;
143 -> 144 ;
145 [label="gini = 0.0\nsamples = 1\nvalue = [1, 0]\nclass = False", fillcolor="#e58139"] ;
144 -> 145 ;
146 [label="bedrooms <= 0.5\ngini = 0.444\nsamples = 3\nvalue = [1, 2]\nclass = True", fillcolor="#9ccef2"] ;
144 -> 146 ;
147 [label="gini = 0.5\nsamples = 2\nvalue = [1, 1]\nclass = False", fillcolor="#ffffff"] ;
146 -> 147 ;
148 [label="gini = 0.0\nsamples = 1\nvalue = [0, 1]\nclass = True", fillcolor="#399de5"] ;
146 -> 148 ;
149 [label="condition <= 0.5\ngini = 0.444\nsamples = 3\nvalue = [2, 1]\nclass = False", fillcolor="#f2c09c"] ;
143 -> 149 ;
150 [label="gini = 0.0\nsamples = 1\nvalue = [0, 1]\nclass = True", fillcolor="#399de5"] ;
149 -> 150 ;
151 [label="gini = 0.0\nsamples = 2\nvalue = [2, 0]\nclass = False", fillcolor="#e58139"] ;
149 -> 151 ;
152 [label="floors <= 0.5\ngini = 0.32\nsamples = 25\nvalue = [20, 5]\nclass = False", fillcolor="#eca06a"] ;
142 -> 152 ;
153 [label="bedrooms <= 0.5\ngini = 0.142\nsamples = 13\nvalue = [12, 1]\nclass = False", fillcolor="#e78c49"] ;
152 -> 153 ;
154 [label="gini = 0.0\nsamples = 7\nvalue = [7, 0]\nclass = False", fillcolor="#e58139"] ;
153 -> 154 ;
155 [label="condition <= 0.5\ngini = 0.278\nsamples = 6\nvalue = [5, 1]\nclass = False", fillcolor="#ea9a61"] ;
153 -> 155 ;
156 [label="gini = 0.0\nsamples = 1\nvalue = [1, 0]\nclass = False", fillcolor="#e58139"] ;
155 -> 156 ;
157 [label="gini = 0.32\nsamples = 5\nvalue = [4, 1]\nclass = False", fillcolor="#eca06a"] ;
155 -> 157 ;
158 [label="condition <= 0.5\ngini = 0.444\nsamples = 12\nvalue = [8, 4]\nclass = False", fillcolor="#f2c09c"] ;
152 -> 158 ;
159 [label="bedrooms <= 0.5\ngini = 0.346\nsamples = 9\nvalue = [7, 2]\nclass = False", fillcolor="#eca572"] ;
158 -> 159 ;
160 [label="gini = 0.444\nsamples = 3\nvalue = [2, 1]\nclass = False", fillcolor="#f2c09c"] ;
159 -> 160 ;
161 [label="gini = 0.278\nsamples = 6\nvalue = [5, 1]\nclass = False", fillcolor="#ea9a61"] ;
159 -> 161 ;
162 [label="bedrooms <= 0.5\ngini = 0.444\nsamples = 3\nvalue = [1, 2]\nclass = True", fillcolor="#9ccef2"] ;
158 -> 162 ;
163 [label="gini = 0.5\nsamples = 2\nvalue = [1, 1]\nclass = False", fillcolor="#ffffff"] ;
162 -> 163 ;
164 [label="gini = 0.0\nsamples = 1\nvalue = [0, 1]\nclass = True", fillcolor="#399de5"] ;
162 -> 164 ;
}